svm_type c_svc
kernel_type rbf
gamma 0.05
nr_class 3
total_sv 99
rho -0.255524 -53.6308 1.37919
label 1 2 3
probA -1.39272 -2.08526 -1.47383
probB 0.265634 -0.119783 -0.278048
nr_sv 45 6 48
SV
1024 1024 1:0.318011 2:0.534619 3:0.0687932 
0 1024 1:0.592596 2:0.361446 3:0.0731025 
0 1024 1:0.495322 2:0.347398 3:0.0553426 
1024 1024 1:0.4021 2:0.493536 3:0.0682938 
0 1024 1:0.500737 2:0.392353 3:0.0650154 
0 1024 1:0.589481 2:0.285221 3:0.0545487 
0 1024 1:0.641565 2:0.378222 3:0.0633197 
0 1024 1:0.552305 2:0.304154 3:0.0516123 
0 1024 1:0.496399 2:0.30969 3:0.0552498 
0 1024 1:0.543679 2:0.266375 3:0.0662915 
0 1024 1:0.632462 2:0.253264 3:0.0524798 
0 1024 1:0.332653 2:0.365753 3:0.0720746 
0 1024 1:0.930174 2:0.0406413 3:0.0860709 
0 1024 1:0.638412 2:0.208006 3:0.0528207 
0 1024 1:0.556494 2:0.152003 3:0.0457353 
0 1024 1:0.465219 2:0.325565 3:0.0492478 
0 38.48437902909885 1:0.312668 2:0.374093 3:0.0522094 
0 1024 1:0.962089 2:0.0322804 3:0.0973093 
0 1024 1:0.447409 2:0.281053 3:0.0563181 
0 1024 1:0.496129 2:0.319099 3:0.0505117 
1024 1024 1:0.372128 2:0.545873 3:0.0734112 
0 1024 1:0.46997 2:0.48674 3:0.0730047 
0 1024 1:0.36649 2:0.336137 3:0.0542158 
0 1024 1:0.526917 2:0.394557 3:0.0584495 
0 1024 1:0.457919 2:0.291132 3:0.0502828 
0 1024 1:0.915589 2:0.036403 3:0.0803776 
0 655.2858670411467 1:0.966897 2:0.0148364 3:0.088627 
0 986.0893036821357 1:0.464395 2:0.457207 3:0.057122 
74.94108692345998 1024 1:0.400722 2:0.449877 3:0.0661856 
0 1024 1:0.545873 2:0.374126 3:0.0639109 
0 1024 1:0.501721 2:0.344573 3:0.0548231 
0 1024 1:0.491192 2:0.449461 3:0.059662 
0 1024 1:0.43661 2:0.382942 3:0.0599041 
0 1024 1:0.64452 2:0.355476 3:0.0594996 
0 1024 1:0.587697 2:0.336293 3:0.0603107 
0 1024 1:0.50064 2:0.344979 3:0.0528954 
1024 1024 1:0.324492 2:0.428003 3:0.0599737 
0 1024 1:0.962228 2:0.026848 3:0.0937454 
0 1024 1:0.468275 2:0.445499 3:0.0657881 
0 1024 1:0.476464 2:0.280385 3:0.0518181 
0 1024 1:0.529346 2:0.448602 3:0.0796755 
0 1024 1:0.945665 2:0.0359523 3:0.0926459 
0 1024 1:0.487655 2:0.453216 3:0.0707834 
0 1024 1:0.488379 2:0.401476 3:0.0578614 
0 1024 1:0.450406 2:0.478256 3:0.0680618 
-1024 1024 1:0.33571 2:0.540051 3:0.0691412 
-1024 1024 1:0.315423 2:0.522003 3:0.0620316 
-74.94108692345998 1024 1:0.315405 2:0.541453 3:0.0676513 
-0 331.7923928325491 1:0.297363 2:0.539478 3:0.0728433 
-1024 1024 1:0.348567 2:0.5413 3:0.0775369 
-1024 1024 1:0.333184 2:0.52121 3:0.0719586 
-1024 -0 1:0.648316 2:0.276678 3:0.0874135 
-0 -1024 1:0.321794 2:0.544745 3:0.112884 
-1024 -0 1:0.534692 2:0.199756 3:0.0728604 
-1024 -0 1:0.481066 2:0.369854 3:0.0696183 
-1024 -0 1:0.75836 2:0.0888884 3:0.0539031 
-1024 -0 1:0.504766 2:0.338714 3:0.0575225 
-1024 -1024 1:0.315402 2:0.560002 3:0.0915867 
-1024 -0 1:0.530368 2:0.38984 3:0.0867074 
-1024 -0 1:0.486674 2:0.337947 3:0.0769559 
-1024 -0 1:0.498103 2:0.397101 3:0.0767592 
-1024 -0 1:0.503322 2:0.413398 3:0.0830467 
-1024 -0 1:0.506066 2:0.281049 3:0.0709256 
-1024 -0 1:0.448298 2:0.435772 3:0.0712404 
-1024 -0 1:0.560596 2:0.372776 3:0.0795746 
-1024 -0 1:0.767978 2:0.215527 3:0.0920265 
-1024 -0 1:0.489926 2:0.252853 3:0.0712878 
-1024 -0 1:0.479926 2:0.16868 3:0.0751593 
-1024 -0 1:0.58242 2:0.319448 3:0.0823244 
-1024 -1024 1:0.313435 2:0.603869 3:0.07604 
-1024 -0 1:0.46007 2:0.514749 3:0.0843601 
-1024 -0 1:0.634446 2:0.306339 3:0.0737925 
-1024 -0 1:0.419946 2:0.38975 3:0.0665719 
-1024 -0 1:0.486441 2:0.428313 3:0.0789229 
-1024 -0 1:0.511976 2:0.390324 3:0.0794717 
-1024 -0 1:0.628594 2:0.326428 3:0.0806761 
-1024 -0 1:0.503183 2:0.329897 3:0.0831284 
-1024 -0 1:0.403686 2:0.434132 3:0.0807518 
-1024 -0 1:0.611637 2:0.291496 3:0.0771112 
-290.7874265248807 -0 1:0.510663 2:0.369163 3:0.0859841 
-1024 -0 1:0.509994 2:0.352361 3:0.0629727 
-365.0721232275006 -0 1:0.475994 2:0.464185 3:0.0915211 
-1024 -0 1:0.680664 2:0.189758 3:0.0829851 
-1024 -0 1:0.600662 2:0.377467 3:0.0890265 
-1024 -0 1:0.65841 2:0.30556 3:0.0808214 
-1024 -0 1:0.67035 2:0.265087 3:0.0832706 
-1024 -0 1:0.717749 2:0.201574 3:0.0416257 
-1024 -0 1:0.646114 2:0.302606 3:0.0829065 
-1024 -0 1:0.567634 2:0.162676 3:0.0760359 
-1024 -0 1:0.579911 2:0.249589 3:0.0809203 
-0 -1024 1:0.334719 2:0.40567 3:0.100376 
-1024 -0 1:0.660124 2:0.200101 3:0.0734979 
-1024 -0 1:0.806172 2:0.156132 3:0.0953614 
-1024 -0 1:0.526252 2:0.347297 3:0.0696839 
-0 -60.26294353497224 1:0.42602 2:0.492463 3:0.0970631 
-1024 -0 1:0.639651 2:0.294139 3:0.0869213 
-1024 -1024 1:0.428895 2:0.509055 3:0.0876849 
-1024 -271.5294492975768 1:0.403686 2:0.434132 3:0.0807518 
-1024 -0 1:0.497916 2:0.180342 3:0.0704596 
